3 2 2
3 4 5 2 
-0.160481582 -0.187856685 0.050065615 0.170705283 0.415341655 -0.333643605 0.237723930 -0.308496353 -0.333368938 -0.450682089 -0.471129490 0.175496689 -0.080553606 -0.063707389 0.270104068 -0.058671834 
-12980799944024890737291867937549410429257660782835995836948676608.000000000 0.464323862 -12980799944024890737291867937549410429257660782835995836948676608.000000000 -12980799944024890737291867937549410429257660782835995836948676608.000000000 -0.377925962 13504522084173918800780051213535952566073981161785867714412150784.000000000 0.005020295 13504522084173918800780051213535952566073981161785867714412150784.000000000 13504522084173918800780051213535952566073981161785867714412150784.000000000 0.012466811 -10649824630323600227486509936242243700305964684214344760235655168.000000000 0.122028260 -10649824630323600227486509936242243700305964684214344760235655168.000000000 -10649824630323600227486509936242243700305964684214344760235655168.000000000 -0.051103244 -3249977037379088549510565968648236796922561458337220763586658304.000000000 -0.470183416 -3249977037379088549510565968648236796922561458337220763586658304.000000000 -3249977037379088549510565968648236796922561458337220763586658304.000000000 0.126880703 4018678348024763750836441275949313766439928843318558451245776896.000000000 -0.398251289 4018678348024763750836441275949313766439928843318558451245776896.000000000 4018678348024763750836441275949313766439928843318558451245776896.000000000 0.201101718 
-152548455796500488271599699435357430313151254998807202696697741312.000000000 -86688997417500566995221303293304043651675557398564698942041227264.000000000 -67672022455146090249788921084716217485396745995662342122488463360.000000000 -57707073647998743147182316324513777476212582871591822692408360960.000000000 -78900665968293726880333781225896576144775329998984510482944098304.000000000 -88034465170877036105035388074637405106037009963821936150291939328.000000000 -151951876481890618260028248895269964450095654841399554308401266688.000000000 -86349978170183247431600044095920683514058226823050598190621392896.000000000 -67407373897651606174817115906263284617547301123071862124268486656.000000000 -57481395542866101875037742020171220120134049753315173380313317376.000000000 -78592104960711856900266506794772621021560006863999188781051674624.000000000 -87690184131652694398153611550264834269017925761137211225826918400.000000000 
